-0.09076771056614559 -0.023854229393789006 0.0614991157706307 -0.09609844286151614 -0.01479131999473702 0.04230837115241266 
-0.07802095363052489 0.003369359086354851 0.07961465440488708 -0.07640451753127829 -0.06757460380926188 -0.05018615022231008 
-0.06709392424449356 0.06928189888404677 0.017134556817746737 -0.03124372392246464 -0.006678503008817671 -0.038658991969616224 
-0.019167628320679 -0.00927122060558634 0.020585983799471075 0.02254755247211091 -0.059979169522834955 0.027752677373603207 
-0.06205578286125715 -0.07769297979128287 0.09579683271229018 -0.027160673768081157 0.039560381232159436 -0.06524123647777853 
0.016215527532147656 -0.06424777635702293 -0.06604512878523404 0.035145349447984975 -0.001971496698597908 -0.08716091505609927 

-0.09076771056614559 0.976721770606208 -0.9381528842293722 0.9045615571384822 0.9856166800052603 -0.9578476288475882 
0.9225550463694733 0.003369359086354851 1.079674654404887 2.9202474824687563 2.929257396190776 0.9494898497776928 
-1.0667459242444928 1.0693418988840464 0.017134556817746737 0.9684442760775368 0.9929254969911849 -1.0387789919696149 
0.9814923716793186 2.987380779394453 1.0202739837994725 0.02254755247211091 2.936384830477199 1.0272726773736038 
0.9383522171387412 2.919139020208754 1.0954008327122935 2.969203326231955 0.039560381232159436 0.9347947635222241 
-0.9839404724678533 0.9354282236429803 -1.0661651287852318 1.034665349447985 0.9980645033014044 -0.08716091505609927 